{"input_size": 24, "hidden_size": 16, "learning_rate": 0.01, "W1": [[0.0908684170908384, -0.05360956251719893, -0.13642889717297105, -0.07264171885623781, 0.15768551002260126, -0.12981569651422373, 0.1453980203627656, -0.1002532445757743, -0.00891695432102683, 0.10879318473727323, 0.10788159920385036, -0.04551911513911077, 0.10574308828576678, 0.1530053017966722, 0.10524497112694468, -0.002209209755267905], [-0.18728837970841178, -0.06840808703155352, -0.05779029197300307, 0.0009520747369841942, -0.08051474194935353, -0.01006148538819963, 0.16284033772110085, 0.13144344084459206, 0.09210937544568384, 0.11797422316191804, -0.06447651130297163, 0.008578514231291549, 0.20879083304961352, -0.04282568537445157, 0.06515915958544383, 0.031135874686557045], [0.11173607992178017, -0.0006860772610066527, 0.08859772020193986, 0.16829364279069178, -0.09075770932787137, -0.0529960043932535, -0.1693097715113063, -0.1289017090629232, -0.05730316883608636, 0.1516833673141048, 0.01164046388787488, 0.0006758266009241924, 0.029537993498524408, 0.03793837007840381, -0.038168772941016345, -0.12229411341568075], [0.022947487464399438, -0.055976374918797894, 0.12608878096285986, -0.07866641424352248, 0.0908672293359693, -0.08806541172177615, -0.016649604678115913, 0.10833465595741297, -0.07515143097294728, 0.04594797675373721, 0.1752403338383095, 0.06602218853729061, 0.03303676121331112, 0.06644001863802464, 0.1121569716102153, -0.04201922574083771], [0.010292471131663171, 0.04751357592594049, 0.026969274686158843, 0.008903505859985332, -0.0025619081912443597, -0.07259487538950864, 0.28065720011243717, -0.07618913377119133, -0.07779068422733977, -0.1380911751033552, -0.0578509566158292, -0.03126091013094116, -0.1713272114659457, -0.11791492123757387, 0.023197865172677107, -0.1097804951405652], [-0.09256802197261266, -0.057860969732719654, -0.18216084533117924, 0.07220099748449557, 0.04699935601595992, -0.14864673040675733, -0.16364173927394063, 0.12210176532719327, -0.09572609612167976, 0.08332009996156645, -0.08365500082470666, -0.01857198884397526, -0.03020964867960254, -0.2040284394540661, 0.009920122261847198, -0.06732494586185911], [0.013774918784325614, -0.07460759500019205, -0.08285123008300274, 0.012144843277131022, 0.037106255414661345, -0.03830671108464107, -0.016648447820068125, 0.08615964195628863, -0.0886938510887149, -0.026087760772240662, -0.012566355330033507, -0.06588445370995337, -0.1071753895339441, 0.2215974317437093, -0.17278836565300287, 0.09392981101782415], [0.009957879840540654, -0.1869400258203669, -0.046547170596955435, -0.28930012052575205, -0.16414783272556735, -0.1160641645095598, -0.08317437003750049, -0.021744306401997714, 0.13845576569860288, -0.05625760336136439, 0.06443552916823819, -0.1079900057185093, -0.11166367716548398, -0.12746490486244166, -0.02854639855233409, -0.17159068447651826], [0.2685127632446471, 0.08233310821143504, 0.28112694640817626, 0.20837257463749145, 0.19002923470247954, 0.08129958808878211, 0.13978401903921844, 0.2428732752513819, 0.2502298569439466, -0.020171108465622384, 0.15481702784652976, 0.11708567492321223, 0.2827878597888081, 0.12835405092810587, 0.17624604151660175, 0.1576350046749997], [-0.058073784994064105, -0.18028549698836185, 0.14229285188596355, -0.12239195991205011, -0.03494518620750957, -0.14679329566169402, -0.05494126075462786, -0.1495440254365025, 0.0027923821301769234, 0.05837798245062885, -0.16841044097270502, 0.04297050191838117, -0.05646977364767161, -0.08156321164477745, -0.11847933671707035, -0.11841565581133986], [0.07419731737771476, 0.004875680965190121, 0.12055942858995258, 0.04777543982883037, 0.004556005953252209, 0.16987648579355658, 0.09654452408370678, -0.1269106761123812, -0.04071295552061741, 0.21657266312496598, 0.13198782484135918, 0.09297105216781715, 0.09230790419179427, -0.020122783307579134, 0.2039629665072238, 0.2640660108050112], [0.1122489418695776, -0.1077478091594414, -0.19281209928807896, -0.09624710035512338, -0.22709639536067006, -0.054107852214444356, -0.06831607899394994, -0.004118027065319154, -0.12812857478250603, -0.08387033512582828, 0.008150819058746412, -0.13062613341385923, -0.0035483987867614454, 0.005493696520798193, -0.009528911197413252, -0.0015947916422222345], [-0.04797355778367857, 0.04817414352287244, -0.11694433694768545, 0.09819679104115563, -0.09382377043746903, 0.04503792631612347, 0.08853920303918886, -0.04368123015858641, -0.07728995659113523, -0.009003574305651402, 0.19834375440660318, 0.05742819571420813, 0.07217949375503953, -0.01806703464011975, -0.03802661113666267, -0.2013171094753138], [0.15958538306770612, 0.10292473299684367, 0.04250146502483443, 0.06337459758728527, -0.037177864775417666, 0.2329023982371674, 0.0561754692547715, 0.17861718525297335, 0.06943603625015415, 0.131160090532343, -0.0016382433821874212, 0.15698890594012116, 0.0029054219773793663, 0.17201427162249247, 0.23752503748034318, -0.1353409275506172], [-0.14046471195109633, -0.02848211826692063, -0.07603716903551605, -0.09699182724303594, 0.10010610725754529, 0.17244937899524812, -0.126475510994531, -0.12565060280911225, 0.07721181234062781, -0.1475536810171397, 0.08583134939864277, 0.1339311559740583, 0.09672633303714635, 0.05144858937963493, -0.06092768490726491, -0.07442034509037972], [-0.03237280953273885, -0.16349900569861528, -0.0562717490475078, 0.1605476087131266, 0.14812095280274926, -0.054385412063241316, 0.0379643989931404, -0.05645109163309112, 0.04069010437302949, 0.011313484039372206, -0.1147802973504525, 0.1046955443739503, -0.013709251277630575, 0.11870962656823783, 0.08796270043357876, -0.11089112240429781], [0.14986461140913626, 0.037243810275613624, -0.03199175040873935, -0.11973807005077867, 0.10551323134042066, 0.1005496934537065, 0.08752122239175986, 0.1283549664370136, -0.03447904912571384, 0.12070629600153286, 0.010797163041397943, 0.3768166615282499, -0.028155560039416112, -0.005345595100174535, -0.03321334750768605, 0.1107635485364927], [-0.021828662702131935, 0.13135920171915777, 0.0978591767555172, -0.14661678289714727, -0.06508087615278595, -0.02749025697419178, 0.0740979505864905, 0.023130173609955864, -0.09808065379921588, 0.0813963070490094, -0.1522562426492917, -0.022551637341706683, 0.17908394375876754, 0.1603736727819345, -0.15441966601336385, -0.09106498286419337], [0.21820014004953697, 0.051443281406890605, -0.17776229767504187, 0.015538362111715099, 0.049024753765080614, 0.026631846128265062, 0.024495518064722544, -0.08827803950311597, 0.21657927630723087, 0.056244189935428124, -0.12248206270715821, -0.025393783073849648, 0.08674253369590519, -0.07740959734046479, -0.08486834366427642, -0.00034962871974439017], [-0.09357658731538174, -0.0764384794475599, -0.05460342538759578, -0.13057246159792735, -0.047989011536056156, 0.07496469929053386, -0.0996159282003476, -0.06653934053957768, -0.07575838804895758, -0.11166016532325243, -0.25080957327334397, -0.13960361468241914, -0.08383258440515252, 0.04014633358503192, 0.18662829333209005, -0.03513325554255689], [-0.0071711608295400645, -0.20641863322836, -0.07247572785529124, 0.0323845539608741, -0.25914614936385666, -0.13729921671045936, -0.03674006777188704, -0.07467051499468283, -0.12338803576224365, -0.2393495859171249, -0.11926504795797337, 0.16242691423185093, 0.048230836513842, -0.045159912152108066, -0.06881693493394424, 0.006356026094528307], [-0.029160608990923393, -0.026394804803608674, -0.013416292455121352, -0.0234922285949891, -0.026344202640489013, -0.012058745211005363, -0.012602023514322816, -0.014514798467985385, -0.011199398143655177, -0.009288483913394166, -0.033070648618717724, -0.013231101386590333, -0.016296051404235113, -0.007717452766142292, -0.015565673457884139, -0.0204523601485083], [0.03116620935097512, 0.05294121933746226, -0.062131391744231795, -0.1580272859629933, 0.08689180562546824, -0.13131224085925, -0.14582412584353996, -0.06857519606884835, -0.2502096179109132, -0.18059640119328818, -0.11343534784098679, -0.059105890655014516, 0.10019042028334857, -0.17052250633770227, 0.04096141872098431, -0.09729893834068494], [0.061371185607169865, -0.2582160197193057, 0.018924556318687544, -0.003657371637026474, 0.08212228044390772, 0.22383028126824206, 0.047059132077769794, 0.03924751606513198, -0.17096937872706927, -0.00834188110504074, -0.035182243464189786, -0.17640595751973773, 0.05047326072022724, -0.1303843633207394, -0.15296457178867987, -0.09412595965678108]], "b1": [1.319830483163839, 1.3293335234942045, 1.3774681849864685, 1.36746269166107, 1.3671535651083253, 1.37002066647144, 1.357242967649481, 1.318849586529876, 1.4074338513274998, 1.3319972071916995, 1.392567975285765, 1.3835477390695827, 1.3081164682136364, 1.3714707150138234, 1.3725865154034464, 1.320122149240189], "W2": [[0.27160757253948625, -0.9266831674366076, 0.5059033501737985, -0.024740808649131887, 0.1902016166655026, -0.23644090364275422, 0.09864085339509408, 0.3140841331478123, 0.5585270791751641, -0.0005501809901411167, 0.021148803901661697, 0.6857044505443213, -0.22918749433409819, 0.4332231021335536, -0.592561302683725, -0.13647756221246468, 0.44333054549694123, -0.10210023480917685, 0.9212559119972533, -0.1480112540228663, 0.23385021905051065, -0.08410656053525621, 0.3857882255113621, 0.35206978774784187], [-0.3288914998882258, -0.3485395658174776, 0.01999742334606967, -0.37290040441868166, 0.30147543976010294, -0.035532136857132, -0.3305179494936349, -0.5390484937420573, -0.24107388429980825, -0.5613510256831785, -0.2756882750539213, -0.25336590707894896, 0.2563368899224518, 0.14761127298099888, -0.08199253522323392, -0.7602351126123024, -0.03520341805914307, 0.5971034405453779, 0.24223782800700308, -0.15464946589830394, -0.6421624077077209, -0.0787224270836657, 0.5335728874918731, -1.0452018780676953], [-0.6493565861358557, -0.30424919019437674, 0.369116197711864, 0.41067368151248923, 0.20932274688070207, -0.5580896782163911, -0.306215006197387, 0.11703848072139991, 0.5828581959148321, 0.8118694493876552, 0.1778788818916666, -0.5749487392959964, -0.4469385911797347, -0.11819688622301176, -0.2541521356479184, -0.24269159845621263, -0.33557948704408824, 0.37401101282459054, -0.7506197838501047, -0.03786507966495608, -0.0334182060299336, -0.02751062922751612, -0.011686687760504862, 0.23484292281456834], [-0.3863076625685323, -0.07283241168281722, 0.6485397602086606, -0.4067950827038378, 0.14424616062705264, 0.4411552740566641, 0.1101937729733158, -0.8776758775962578, 0.264471299318889, -0.26586241058758137, -0.10245475826902034, -0.17362903905024135, 0.39463442213492306, -0.031339311372168416, -0.33432616197392384, 0.5957520388120467, -0.6716488148727862, -0.5693633658984041, 0.022802419009720878, -0.3105131400517642, 0.37511907585753995, -0.06120740654200195, -0.37872625012707045, 0.12191966049636091], [0.5610319997286627, -0.4206159656083343, -0.35321019767800016, 0.28353113832168564, 0.09560698329401889, 0.347747392156314, 0.21185241824524442, -0.3800377431022674, 0.192314149067535, 0.09183022913547596, -0.28138985560870516, -0.7481200976088854, -0.35222947563046336, -0.43072491063088053, 0.4609811013747312, 0.5975997649079359, 0.23254555291411833, -0.2771880309200883, 0.14697873796705396, -0.020961596572095755, -0.8048487096982982, -0.07725350411202349, 0.5540625498644628, 0.4316231020015503], [-0.6197091525657209, -0.10611842292471865, -0.1725778429154649, -0.48369616504698093, -0.1945340174824827, -0.41495521656515766, -0.1313318810916612, -0.1858971811086373, -0.257478552895148, -0.33074588626148066, 0.3952598268797099, -0.019334378154283897, 0.19981747304476485, 0.6261937370375656, 0.7309231294181595, -0.23253304654284213, 0.1700066869224054, -0.10136315634725436, 0.09384882357428759, 0.5049540184720488, -0.29307864573246084, -0.0073961133405929655, -0.2905284611378276, 1.0392252783693723], [0.5359842765352529, 0.5985147534741687, -0.7023132978552267, -0.16860822377751092, 1.3125040065016185, -0.5341381811882805, -0.0181600517358363, -0.07754285571921227, -0.023709931623010168, 0.002053607212915046, 0.12311373351774393, -0.09131449418969562, 0.3998943536126018, -0.07512151107063751, -0.48939284322105814, 0.15895320439854202, 0.15628791829128832, 0.30069758575434513, 0.058464685222336575, -0.2173690736491205, 0.11545869623808895, -0.019448152131371063, -0.3767549549607571, 0.31215430111706655], [-0.5812187322618869, 0.5399424992082327, -0.5454622061494019, 0.4063359409948769, -0.26451487201411594, 0.7941176395906593, 0.431736965073034, 0.21517785753252122, 0.4997091827587625, -0.4232136281288327, -0.8979021393577789, 0.1658613061923868, -0.17336282382299462, 0.5023094702974525, -0.5630268378668853, -0.29783723537243467, 0.3654897613138998, 0.08568747040541105, -0.4526823073943749, -0.1253856140863097, -0.10813411275970349, -0.029653310273258886, -0.08186726152427508, 0.29684829174795596], [-0.1415547273514293, 0.284877173101635, -0.23931574539081787, -0.3925166435836828, -0.22684856587466903, -0.2192519234084398, -0.2938581723012859, 0.7921272996871324, 0.4232946215190112, 0.23730344353033345, -0.44970667325980257, -0.2987072105044448, -0.31981531520869666, -0.026532383612670157, 0.35060217733256666, 0.13673506772635124, -0.3377744719344633, -0.3638114423412074, 0.8146700409098006, -0.08204684766364773, -0.23179416734178174, -0.002550798082457694, -0.7254853637544868, -0.5544219866077265], [0.3571578765986017, 0.4486143626330324, 0.62724828631318, 0.11021846152208077, -0.5001371459801114, 0.5687096885592104, -0.061505380090555666, 0.0530500435618179, -0.7257978566437944, 0.45990396230084774, 0.6316795287678174, -0.12629399456179657, -0.032863019613662496, 0.2561640039689094, -0.591888042999178, -0.00861993042905077, 0.3124739337697358, 0.3438676628724245, 0.18248818235240336, -0.25445058750534344, -0.7773084474035991, 0.0029253338593287974, -0.5026262607324352, 0.08007111008398621], [0.35586643118671596, -0.3015660104513345, 0.042574475451524055, 0.633822231540879, -0.13841949202061427, -0.1561791531901602, 0.01575264984350774, 0.516939807537772, 0.012965180087502866, -0.4377202387964547, 0.21721462261982788, 0.2033426237207962, 0.8116066276970767, -0.3238407051740246, 0.38038398632674425, -0.46492253670706085, -0.1811871195815179, -0.5860495848969692, -0.5799268299434677, -0.8078409210352911, -0.2535401729800616, -0.10333575961405482, -0.21915289713307579, -0.019707628435895092], [-0.2525298406341779, -0.05085886665877611, 0.0019450728011824832, 0.14819852479529574, 0.012780146361922302, 0.10500435750669157, -0.21059428956002374, -0.14671755378879348, -0.1106903764732717, 0.37365895010673045, 0.07408185793678414, -0.30039603385607583, 0.20815721803810777, 0.2890278621509487, 0.5191894753461895, 0.3644404766533724, 1.2132427819573355, -0.08888314567503881, -0.11298697413277406, -0.31900171779126824, 0.8131617125719549, -0.03131496009983827, 0.021688689000367505, -0.5581970360216694], [0.35664820518618917, 0.8957016061483942, 0.1233042409841448, 0.024721486973089502, -0.6917820729171641, 0.015543488566727518, -0.4689274826873318, -0.255403972670524, 0.6667911238271343, -0.056273708113428765, 0.17067595977515912, 0.1827282611937353, 0.3135627086243182, -0.2880581506640159, 0.4800559877345788, -0.1263997927835248, -0.38333789232082977, 0.7902054730384948, 0.33039733132149846, -0.12944954734698214, 0.44925133539482753, -0.04041369209127912, 0.6837304964176206, 0.2675196523047981], [0.618775680121209, -0.25827796944097137, 0.1468730341882984, 0.17910671286136265, -0.4054475103017242, -0.6962282361431764, 0.994454955357357, -0.24893455830412461, -0.04106395558100698, -0.12974241662211242, -0.33370648579891077, 0.2532792370976177, -0.09471858031924679, 0.367108555878937, 0.26298931524140146, 0.5060674424485431, -0.2581120517920489, 0.6202413303028189, -0.3572146452492865, 0.39315779406279583, 0.08245487796251842, -0.0017163526938110856, -0.4880131573090442, -0.44352598166363016], [0.37891431297623335, 0.2125356461763364, -0.11764776318740798, 0.35657996612007914, 0.16410426868361358, 0.19536040929905793, -0.6469510845048595, 0.14711998203712323, 0.1552532367223106, -0.2527294664781621, 0.5618963252951459, 0.1839536519601654, -0.14239292480331578, 0.6819045337034746, -0.21013278371531052, 0.3355308986331859, -0.3337550693633391, -0.5826734818495642, -0.34878439854417637, 0.9551444970092775, -0.006691935016092255, -0.03075116575404986, 0.4165071890499715, -0.5234997022423847], [-0.051127384664899134, 0.10567084779663409, -0.5100684185793793, -0.30071193678132063, -0.4244496258595591, -0.12352414296675665, 0.4750965858839077, -0.46048065609223626, 0.06818401035341765, -0.2650493004384668, 0.8542424257435692, 0.23101887924913472, -0.8578331941313513, -0.9006677354485876, -0.261133234172735, -0.475587054435665, 0.2382330637354908, -0.35949335766216556, -0.01763440817990826, 0.07174395036352409, 0.3262788449623855, -0.04712182999997255, -0.19119375436560718, -0.3303189965553434]], "b2": [-0.5030853835863488, -0.37210532045631306, 0.12203432131756063, -0.551832081616879, 0.47087922916277786, 0.7601010934601239, 0.20450397403073434, 1.2703174547481735, -2.8056528520661383, 1.076415041261895, -1.214376907745563, 0.9148912344347448, 0.04994696661143733, -1.413729291389339, 0.14770788862384282, -0.1057329841766929, -0.8542850860249309, -0.0424620630869468, -0.18831827329599318, 0.913637856405435, 1.1268723377958765, 0.0035098465755964694, 0.9824002587727194, 0.5155516446674027], "training_history": [0.48839918683019284, 0.34660319122634237, 0.3319237726353033, 0.3256372123914115, 0.32168878969449927, 0.31888262061628797, 0.3167931005505975, 0.3152065503945652, 0.3139897150779126, 0.3130473843074111]}